Language model created by QuickLM on Tue Nov 14 15:09:09 EST 2017
Copyright (c) 1996-2010 Carnegie Mellon University and Alexander I. Rudnicky

The model is in standard ARPA format, designed by Doug Paul while he was at MITRE.

The code that was used to produce this language model is available in Open Source.
Please visit http://www.speech.cs.cmu.edu/tools/ for more information

The (fixed) discount mass is 0.5. The backoffs are computed using the ratio method.
This model based on a corpus of 67 sentences and 175 words

\data\
ngram 1=175
ngram 2=250
ngram 3=250

\1-grams:
-2.9375 1 -0.3005
-2.9375 10 -0.3005
-2.9375 11 -0.3005
-2.9375 12 -0.3005
-2.9375 13 -0.3005
-2.9375 14 -0.3005
-2.9375 15 -0.3005
-2.9375 16 -0.3005
-2.9375 17 -0.3005
-2.9375 18 -0.3005
-2.9375 19 -0.3005
-2.9375 2 -0.3005
-2.9375 20 -0.3005
-2.9375 21 -0.3005
-2.9375 22 -0.3005
-2.9375 23 -0.3005
-2.9375 24 -0.3005
-2.9375 25 -0.3005
-2.9375 26 -0.3005
-2.9375 27 -0.3005
-2.9375 28 -0.3005
-2.9375 29 -0.3005
-2.9375 3 -0.3005
-2.9375 30 -0.3005
-2.9375 31 -0.3005
-2.9375 32 -0.3005
-2.9375 33 -0.3005
-2.9375 34 -0.3005
-2.9375 35 -0.3005
-2.9375 36 -0.3005
-2.9375 37 -0.3005
-2.9375 38 -0.3005
-2.9375 39 -0.3005
-2.9375 4 -0.3005
-2.9375 40 -0.3005
-2.9375 41 -0.3005
-2.9375 42 -0.3005
-2.9375 43 -0.3005
-2.9375 44 -0.3005
-2.9375 45 -0.3005
-2.9375 46 -0.3005
-2.9375 47 -0.3005
-2.9375 48 -0.3005
-2.9375 49 -0.3005
-2.9375 5 -0.3005
-2.9375 50 -0.3005
-2.9375 51 -0.3005
-2.9375 52 -0.3005
-2.9375 53 -0.3005
-2.9375 54 -0.3005
-2.9375 55 -0.3005
-2.9375 56 -0.3005
-2.9375 57 -0.3005
-2.9375 58 -0.3005
-2.9375 59 -0.3005
-2.9375 6 -0.3005
-2.9375 60 -0.3005
-2.9375 61 -0.3005
-2.9375 62 -0.3005
-2.9375 63 -0.3005
-2.9375 64 -0.3005
-2.9375 65 -0.3005
-2.9375 66 -0.3005
-2.9375 67 -0.3005
-2.9375 68 -0.3005
-2.9375 69 -0.3005
-2.9375 7 -0.3005
-2.9375 70 -0.3005
-2.9375 71 -0.3005
-2.9375 72 -0.3005
-2.9375 73 -0.3005
-2.9375 74 -0.3005
-2.9375 75 -0.3005
-2.9375 76 -0.3005
-2.9375 77 -0.3005
-2.9375 78 -0.3005
-2.9375 79 -0.3005
-2.9375 8 -0.3005
-2.9375 80 -0.3005
-2.9375 81 -0.3005
-2.9375 82 -0.3005
-2.9375 83 -0.3005
-2.9375 84 -0.3005
-2.9375 85 -0.3005
-2.9375 86 -0.3005
-2.9375 87 -0.3005
-2.9375 88 -0.3005
-2.9375 89 -0.3005
-2.9375 9 -0.3005
-2.9375 90 -0.3005
-2.9375 91 -0.3005
-2.9375 92 -0.3005
-2.9375 93 -0.3005
-2.9375 94 -0.3005
-2.9375 95 -0.3005
-2.9375 96 -0.3005
-2.9375 97 -0.3005
-2.9375 98 -0.3005
-2.9375 99 -0.2661
-1.1114 </s> -0.3010
-1.1114 <s> -0.2617
-2.2385 A -0.2960
-2.9375 ALARM -0.2975
-2.6365 AM -0.3000
-2.6365 AN -0.2990
-2.6365 ARE -0.2995
-2.9375 BILLION -0.2661
-2.4604 BOYE -0.2661
-2.3355 BRIGHTNESS -0.2628
-2.9375 CAN -0.2995
-1.8583 CHECK -0.2934
-2.9375 CLOCK -0.2661
-2.6365 CONNECTED -0.2655
-2.4604 CURRENT -0.2965
-2.4604 DATE -0.2655
-2.6365 DECREASE -0.2965
-2.9375 DOING -0.2995
-2.4604 DOWN -0.2661
-2.4604 EMAIL -0.2661
-2.3355 EVENTS -0.2628
-2.0924 FOR -0.2628
-2.9375 FORECAST -0.2661
-2.6365 FREMONT -0.2661
-2.9375 FROM -0.2661
-2.9375 FUNNY -0.3000
-2.4604 GOOD -0.2995
-2.9375 HELLO -0.2995
-2.9375 HERE -0.2661
-2.9375 HISTORY -0.2661
-2.9375 HOW -0.3000
-2.9375 HUNDRED -0.2661
-2.9375 I -0.3000
-2.2385 IN -0.2985
-2.6365 INCREASE -0.2965
-2.0924 IS -0.2929
-2.6365 JOKE -0.2661
-2.4604 LAS -0.2995
-1.9375 LIGHTS -0.2595
-2.9375 MAX -0.2990
-2.1594 ME -0.2633
-2.9375 MILLION -0.2661
-2.4604 MUSIC -0.2622
-2.9375 MUTE -0.2990
-2.9375 MY -0.3000
-2.9375 O' -0.3005
-2.4604 OFF -0.2639
-2.4604 ON -0.2639
-2.6365 PLAY -0.2995
-2.9375 PLEASE -0.2661
-2.9375 PM -0.2661
-2.6365 SEARCH -0.3000
-2.4604 SEND -0.2960
-2.1594 SET -0.2924
-2.9375 SING -0.2975
-2.6365 SOUL -0.2661
-2.9375 STEAL -0.3005
-2.9375 STOP -0.2995
-2.6365 TELL -0.2980
-1.9833 THE -0.2899
-2.9375 THOUSAND -0.2661
-2.6365 TIME -0.2661
-2.9375 TIMER -0.2975
-2.9375 TODAY -0.2661
-2.9375 TOMORROW -0.2661
-2.4604 TRAFFIC -0.2633
-2.0344 TURN -0.2909
-2.4604 UP -0.2661
-2.4604 VEGAS -0.2661
-2.3355 VOLUME -0.2661
-2.4604 WEATHER -0.2633
-2.6365 WEB -0.2975
-2.2385 WHAT -0.2975
-2.9375 WHERE -0.3000
-2.4604 WHO -0.2965
-2.4604 YOU -0.2655

\2-grams:
-0.3010 1 2 0.0000
-0.3010 10 11 0.0000
-0.3010 11 12 0.0000
-0.3010 12 13 0.0000
-0.3010 13 14 0.0000
-0.3010 14 15 0.0000
-0.3010 15 16 0.0000
-0.3010 16 17 0.0000
-0.3010 17 18 0.0000
-0.3010 18 19 0.0000
-0.3010 19 20 0.0000
-0.3010 2 3 0.0000
-0.3010 20 21 0.0000
-0.3010 21 22 0.0000
-0.3010 22 23 0.0000
-0.3010 23 24 0.0000
-0.3010 24 25 0.0000
-0.3010 25 26 0.0000
-0.3010 26 27 0.0000
-0.3010 27 28 0.0000
-0.3010 28 29 0.0000
-0.3010 29 30 0.0000
-0.3010 3 4 0.0000
-0.3010 30 31 0.0000
-0.3010 31 32 0.0000
-0.3010 32 33 0.0000
-0.3010 33 34 0.0000
-0.3010 34 35 0.0000
-0.3010 35 36 0.0000
-0.3010 36 37 0.0000
-0.3010 37 38 0.0000
-0.3010 38 39 0.0000
-0.3010 39 40 0.0000
-0.3010 4 5 0.0000
-0.3010 40 41 0.0000
-0.3010 41 42 0.0000
-0.3010 42 43 0.0000
-0.3010 43 44 0.0000
-0.3010 44 45 0.0000
-0.3010 45 46 0.0000
-0.3010 46 47 0.0000
-0.3010 47 48 0.0000
-0.3010 48 49 0.0000
-0.3010 49 50 0.0000
-0.3010 5 6 0.0000
-0.3010 50 51 0.0000
-0.3010 51 52 0.0000
-0.3010 52 53 0.0000
-0.3010 53 54 0.0000
-0.3010 54 55 0.0000
-0.3010 55 56 0.0000
-0.3010 56 57 0.0000
-0.3010 57 58 0.0000
-0.3010 58 59 0.0000
-0.3010 59 60 0.0000
-0.3010 6 7 0.0000
-0.3010 60 61 0.0000
-0.3010 61 62 0.0000
-0.3010 62 63 0.0000
-0.3010 63 64 0.0000
-0.3010 64 65 0.0000
-0.3010 65 66 0.0000
-0.3010 66 67 0.0000
-0.3010 67 68 0.0000
-0.3010 68 69 0.0000
-0.3010 69 70 0.0000
-0.3010 7 8 0.0000
-0.3010 70 71 0.0000
-0.3010 71 72 0.0000
-0.3010 72 73 0.0000
-0.3010 73 74 0.0000
-0.3010 74 75 0.0000
-0.3010 75 76 0.0000
-0.3010 76 77 0.0000
-0.3010 77 78 0.0000
-0.3010 78 79 0.0000
-0.3010 79 80 0.0000
-0.3010 8 9 0.0000
-0.3010 80 81 0.0000
-0.3010 81 82 0.0000
-0.3010 82 83 0.0000
-0.3010 83 84 0.0000
-0.3010 84 85 0.0000
-0.3010 85 86 0.0000
-0.3010 86 87 0.0000
-0.3010 87 88 0.0000
-0.3010 88 89 0.0000
-0.3010 89 90 0.0000
-0.3010 9 10 0.0000
-0.3010 90 91 0.0000
-0.3010 91 92 0.0000
-0.3010 92 93 0.0000
-0.3010 93 94 0.0000
-0.3010 94 95 0.0000
-0.3010 95 96 0.0000
-0.3010 96 97 0.0000
-0.3010 97 98 0.0000
-0.3010 98 99 0.0000
-0.3010 99 </s> -0.3010
-2.1271 <s> 1 0.0000
-2.1271 <s> AM -0.1761
-2.1271 <s> BILLION 0.0000
-2.1271 <s> CAN 0.0000
-1.0479 <s> CHECK 0.0000
-1.8261 <s> DECREASE 0.0000
-2.1271 <s> FOR -0.1549
-2.1271 <s> HELLO 0.0000
-2.1271 <s> HOW 0.0000
-2.1271 <s> HUNDRED 0.0000
-1.8261 <s> INCREASE 0.0000
-2.1271 <s> MAX 0.0000
-2.1271 <s> MILLION 0.0000
-2.1271 <s> MUTE 0.0000
-2.1271 <s> O' 0.0000
-1.8261 <s> PLAY 0.0000
-2.1271 <s> PLEASE 0.0000
-1.8261 <s> SEARCH 0.0000
-1.6500 <s> SEND 0.0000
-1.3490 <s> SET 0.0000
-2.1271 <s> SING 0.0000
-2.1271 <s> SOUL 0.0000
-2.1271 <s> STEAL 0.0000
-2.1271 <s> STOP 0.0000
-1.8261 <s> TELL 0.0000
-2.1271 <s> THOUSAND 0.0000
-2.1271 <s> TOMORROW 0.0000
-1.2240 <s> TURN 0.0000
-1.4281 <s> WHAT 0.0000
-2.1271 <s> WHERE 0.0000
-1.6500 <s> WHO 0.0000
-1.0000 A EMAIL 0.0000
-1.0000 A FUNNY 0.0000
-1.0000 A GOOD 0.0000
-1.0000 A JOKE 0.0000
-1.0000 A TIMER 0.0000
-0.3010 ALARM FOR -0.1963
-0.6021 AM I 0.0000
-0.6021 AM PM 0.0000
-0.6021 AN ALARM 0.0000
-0.6021 AN EMAIL 0.0000
-0.3010 ARE YOU 0.0000
-0.3010 BILLION </s> -0.3010
-0.3010 BOYE </s> -0.3010
-0.6021 BRIGHTNESS </s> -0.3010
-0.9031 BRIGHTNESS DOWN 0.0000
-0.9031 BRIGHTNESS UP 0.0000
-0.3010 CAN YOU -0.1249
-1.3802 CHECK CURRENT -0.2218
-0.9031 CHECK EVENTS 0.0000
-1.3802 CHECK FORECAST 0.0000
-1.3802 CHECK HISTORY 0.0000
-0.9031 CHECK TRAFFIC 0.0000
-0.9031 CHECK WEATHER 0.0000
-0.3010 CLOCK </s> -0.3010
-0.6021 CONNECTED </s> -0.3010
-0.6021 CONNECTED FROM 0.0000
-0.7782 CURRENT DATE -0.1249
-0.7782 CURRENT EVENTS -0.1761
-0.7782 CURRENT TIME 0.0000
-0.4771 DATE </s> -0.3010
-0.7782 DATE TODAY 0.0000
-0.3010 DECREASE THE -0.1919
-0.3010 DOING GOOD 0.0000
-0.3010 DOWN </s> -0.3010
-0.3010 EMAIL </s> -0.3010
-0.6021 EVENTS </s> -0.3010
-0.9031 EVENTS HERE 0.0000
-0.9031 EVENTS IN -0.1461
-0.6690 FOR </s> -0.3010
-0.5441 FOR ME -0.1249
-0.3010 FORECAST </s> -0.3010
-0.3010 FREMONT </s> -0.3010
-0.3010 FROM </s> -0.3010
-0.3010 FUNNY JOKE 0.0000
-0.3010 GOOD BOYE 0.0000
-0.3010 HELLO GOOD 0.0000
-0.3010 HERE </s> -0.3010
-0.3010 HISTORY </s> -0.3010
-0.3010 HOW ARE 0.0000
-0.3010 HUNDRED </s> -0.3010
-0.3010 I CONNECTED -0.1761
-0.6990 IN FREMONT 0.0000
-0.5229 IN LAS 0.0000
-0.3010 INCREASE THE -0.1919
-1.1461 IS A -0.2553
-1.1461 IS CONNECTED -0.1761
-0.4472 IS THE -0.1597
-0.3010 JOKE </s> -0.3010
-0.3010 LAS VEGAS 0.0000
-1.0000 LIGHTS </s> -0.3010
-1.0000 LIGHTS DOWN 0.0000
-1.0000 LIGHTS OFF -0.1249
-1.0000 LIGHTS ON -0.1249
-1.0000 LIGHTS UP 0.0000
-0.3010 MAX VOLUME 0.0000
-0.4771 ME </s> -0.3010
-0.7782 ME A -0.2041
-0.3010 MILLION </s> -0.3010
-0.4771 MUSIC </s> -0.3010
-0.7782 MUSIC FOR -0.1549
-0.3010 MUTE VOLUME 0.0000
-0.3010 MY SOUL 0.0000
-0.3010 O' CLOCK 0.0000
-0.4771 OFF </s> -0.3010
-0.7782 OFF VOLUME 0.0000
-0.4771 ON </s> -0.3010
-0.7782 ON VOLUME 0.0000
-0.3010 PLAY MUSIC 0.0000
-0.3010 PLEASE </s> -0.3010
-0.3010 PM </s> -0.3010
-0.3010 SEARCH WEB 0.0000
-0.7782 SEND A -0.2553
-0.7782 SEND AN -0.1761
-0.7782 SEND EMAIL 0.0000
-1.0792 SET A -0.2553
-1.0792 SET AN -0.1761
-0.4771 SET LIGHTS -0.0792
-0.3010 SING FOR -0.1549
-0.3010 SOUL </s> -0.3010
-0.3010 STEAL MY 0.0000
-0.3010 STOP MUSIC -0.1249
-0.3010 TELL ME -0.2218
-0.9542 THE BRIGHTNESS -0.1761
-0.9542 THE CURRENT -0.1249
-0.9542 THE DATE 0.0000
-0.9542 THE LIGHTS -0.2553
-1.2553 THE TIME 0.0000
-0.3010 THOUSAND </s> -0.3010
-0.3010 TIME </s> -0.3010
-0.3010 TIMER FOR -0.1963
-0.3010 TODAY </s> -0.3010
-0.3010 TOMORROW </s> -0.3010
-0.7782 TRAFFIC </s> -0.3010
-0.4771 TRAFFIC IN 0.0000
-0.9031 TURN BRIGHTNESS -0.1761
-0.6021 TURN LIGHTS -0.0792
-1.2041 TURN OFF -0.2218
-1.2041 TURN ON -0.2218
-0.3010 UP </s> -0.3010
-0.3010 VEGAS </s> -0.3010
-0.3010 VOLUME </s> -0.3010
-0.7782 WEATHER </s> -0.3010
-0.4771 WEATHER IN 0.0000
-0.3010 WEB FOR 0.0000
-0.3010 WHAT IS -0.1091
-0.3010 WHERE AM -0.1761
-0.7782 WHO ARE 0.0000
-0.4771 WHO IS -0.2341
-0.4771 YOU </s> -0.3010
-0.7782 YOU DOING 0.0000

\3-grams:
-0.3010 1 2 3
-0.3010 10 11 12
-0.3010 11 12 13
-0.3010 12 13 14
-0.3010 13 14 15
-0.3010 14 15 16
-0.3010 15 16 17
-0.3010 16 17 18
-0.3010 17 18 19
-0.3010 18 19 20
-0.3010 19 20 21
-0.3010 2 3 4
-0.3010 20 21 22
-0.3010 21 22 23
-0.3010 22 23 24
-0.3010 23 24 25
-0.3010 24 25 26
-0.3010 25 26 27
-0.3010 26 27 28
-0.3010 27 28 29
-0.3010 28 29 30
-0.3010 29 30 31
-0.3010 3 4 5
-0.3010 30 31 32
-0.3010 31 32 33
-0.3010 32 33 34
-0.3010 33 34 35
-0.3010 34 35 36
-0.3010 35 36 37
-0.3010 36 37 38
-0.3010 37 38 39
-0.3010 38 39 40
-0.3010 39 40 41
-0.3010 4 5 6
-0.3010 40 41 42
-0.3010 41 42 43
-0.3010 42 43 44
-0.3010 43 44 45
-0.3010 44 45 46
-0.3010 45 46 47
-0.3010 46 47 48
-0.3010 47 48 49
-0.3010 48 49 50
-0.3010 49 50 51
-0.3010 5 6 7
-0.3010 50 51 52
-0.3010 51 52 53
-0.3010 52 53 54
-0.3010 53 54 55
-0.3010 54 55 56
-0.3010 55 56 57
-0.3010 56 57 58
-0.3010 57 58 59
-0.3010 58 59 60
-0.3010 59 60 61
-0.3010 6 7 8
-0.3010 60 61 62
-0.3010 61 62 63
-0.3010 62 63 64
-0.3010 63 64 65
-0.3010 64 65 66
-0.3010 65 66 67
-0.3010 66 67 68
-0.3010 67 68 69
-0.3010 68 69 70
-0.3010 69 70 71
-0.3010 7 8 9
-0.3010 70 71 72
-0.3010 71 72 73
-0.3010 72 73 74
-0.3010 73 74 75
-0.3010 74 75 76
-0.3010 75 76 77
-0.3010 76 77 78
-0.3010 77 78 79
-0.3010 78 79 80
-0.3010 79 80 81
-0.3010 8 9 10
-0.3010 80 81 82
-0.3010 81 82 83
-0.3010 82 83 84
-0.3010 83 84 85
-0.3010 84 85 86
-0.3010 85 86 87
-0.3010 86 87 88
-0.3010 87 88 89
-0.3010 88 89 90
-0.3010 89 90 91
-0.3010 9 10 11
-0.3010 90 91 92
-0.3010 91 92 93
-0.3010 92 93 94
-0.3010 93 94 95
-0.3010 94 95 96
-0.3010 95 96 97
-0.3010 96 97 98
-0.3010 97 98 99
-0.3010 98 99 </s>
-0.3010 <s> 1 2
-0.3010 <s> AM PM
-0.3010 <s> BILLION </s>
-0.3010 <s> CAN YOU
-1.3802 <s> CHECK CURRENT
-0.9031 <s> CHECK EVENTS
-1.3802 <s> CHECK FORECAST
-1.3802 <s> CHECK HISTORY
-0.9031 <s> CHECK TRAFFIC
-0.9031 <s> CHECK WEATHER
-0.3010 <s> DECREASE THE
-0.3010 <s> FOR ME
-0.3010 <s> HELLO GOOD
-0.3010 <s> HOW ARE
-0.3010 <s> HUNDRED </s>
-0.3010 <s> INCREASE THE
-0.3010 <s> MAX VOLUME
-0.3010 <s> MILLION </s>
-0.3010 <s> MUTE VOLUME
-0.3010 <s> O' CLOCK
-0.3010 <s> PLAY MUSIC
-0.3010 <s> PLEASE </s>
-0.3010 <s> SEARCH WEB
-0.7782 <s> SEND A
-0.7782 <s> SEND AN
-0.7782 <s> SEND EMAIL
-1.0792 <s> SET A
-1.0792 <s> SET AN
-0.4771 <s> SET LIGHTS
-0.3010 <s> SING FOR
-0.3010 <s> SOUL </s>
-0.3010 <s> STEAL MY
-0.3010 <s> STOP MUSIC
-0.3010 <s> TELL ME
-0.3010 <s> THOUSAND </s>
-0.3010 <s> TOMORROW </s>
-0.9031 <s> TURN BRIGHTNESS
-0.6021 <s> TURN LIGHTS
-1.2041 <s> TURN OFF
-1.2041 <s> TURN ON
-0.3010 <s> WHAT IS
-0.3010 <s> WHERE AM
-0.7782 <s> WHO ARE
-0.4771 <s> WHO IS
-0.3010 A EMAIL </s>
-0.3010 A FUNNY JOKE
-0.3010 A GOOD BOYE
-0.3010 A JOKE </s>
-0.3010 A TIMER FOR
-0.3010 ALARM FOR </s>
-0.3010 AM I CONNECTED
-0.3010 AM PM </s>
-0.3010 AN ALARM FOR
-0.3010 AN EMAIL </s>
-0.6021 ARE YOU </s>
-0.6021 ARE YOU DOING
-0.3010 BRIGHTNESS DOWN </s>
-0.3010 BRIGHTNESS UP </s>
-0.3010 CAN YOU </s>
-0.3010 CHECK CURRENT EVENTS
-0.7782 CHECK EVENTS </s>
-0.7782 CHECK EVENTS HERE
-0.7782 CHECK EVENTS IN
-0.3010 CHECK FORECAST </s>
-0.3010 CHECK HISTORY </s>
-0.7782 CHECK TRAFFIC </s>
-0.4771 CHECK TRAFFIC IN
-0.7782 CHECK WEATHER </s>
-0.4771 CHECK WEATHER IN
-0.3010 CONNECTED FROM </s>
-0.3010 CURRENT DATE </s>
-0.3010 CURRENT EVENTS </s>
-0.3010 CURRENT TIME </s>
-0.3010 DATE TODAY </s>
-0.6021 DECREASE THE BRIGHTNESS
-0.6021 DECREASE THE LIGHTS
-0.3010 DOING GOOD BOYE
-0.3010 EVENTS HERE </s>
-0.3010 EVENTS IN LAS
-0.3010 FOR ME </s>
-0.3010 FUNNY JOKE </s>
-0.3010 GOOD BOYE </s>
-0.3010 HELLO GOOD BOYE
-0.3010 HOW ARE YOU
-0.3010 I CONNECTED FROM
-0.3010 IN FREMONT </s>
-0.3010 IN LAS VEGAS
-0.6021 INCREASE THE BRIGHTNESS
-0.6021 INCREASE THE LIGHTS
-0.3010 IS A GOOD
-0.3010 IS CONNECTED </s>
-0.6990 IS THE CURRENT
-0.6990 IS THE DATE
-1.0000 IS THE TIME
-0.3010 LAS VEGAS </s>
-0.3010 LIGHTS DOWN </s>
-0.3010 LIGHTS OFF </s>
-0.3010 LIGHTS ON </s>
-0.3010 LIGHTS UP </s>
-0.3010 MAX VOLUME </s>
-0.6021 ME A FUNNY
-0.6021 ME A JOKE
-0.3010 MUSIC FOR ME
-0.3010 MUTE VOLUME </s>
-0.3010 MY SOUL </s>
-0.3010 O' CLOCK </s>
-0.3010 OFF VOLUME </s>
-0.3010 ON VOLUME </s>
-0.6021 PLAY MUSIC </s>
-0.6021 PLAY MUSIC FOR
-0.3010 SEARCH WEB FOR
-0.3010 SEND A EMAIL
-0.3010 SEND AN EMAIL
-0.3010 SEND EMAIL </s>
-0.3010 SET A TIMER
-0.3010 SET AN ALARM
-0.9031 SET LIGHTS DOWN
-0.9031 SET LIGHTS OFF
-0.9031 SET LIGHTS ON
-0.9031 SET LIGHTS UP
-0.3010 SING FOR ME
-0.3010 STEAL MY SOUL
-0.3010 STOP MUSIC </s>
-0.3010 TELL ME A
-0.3010 THE BRIGHTNESS </s>
-0.6021 THE CURRENT DATE
-0.6021 THE CURRENT TIME
-0.6021 THE DATE </s>
-0.6021 THE DATE TODAY
-0.3010 THE LIGHTS </s>
-0.3010 THE TIME </s>
-0.3010 TIMER FOR </s>
-0.6021 TRAFFIC IN FREMONT
-0.6021 TRAFFIC IN LAS
-0.6021 TURN BRIGHTNESS DOWN
-0.6021 TURN BRIGHTNESS UP
-0.9031 TURN LIGHTS DOWN
-0.9031 TURN LIGHTS OFF
-0.9031 TURN LIGHTS ON
-0.9031 TURN LIGHTS UP
-0.3010 TURN OFF VOLUME
-0.3010 TURN ON VOLUME
-0.6021 WEATHER IN FREMONT
-0.6021 WEATHER IN LAS
-0.6021 WEB FOR </s>
-0.6021 WEB FOR ME
-0.3010 WHAT IS THE
-0.3010 WHERE AM I
-0.3010 WHO ARE YOU
-0.6021 WHO IS A
-0.6021 WHO IS CONNECTED
-0.3010 YOU DOING GOOD

\end\