Language model created by QuickLM on Thu Oct 26 19:09:53 EDT 2017
Copyright (c) 1996-2010 Carnegie Mellon University and Alexander I. Rudnicky

The model is in standard ARPA format, designed by Doug Paul while he was at MITRE.

The code that was used to produce this language model is available in Open Source.
Please visit http://www.speech.cs.cmu.edu/tools/ for more information

The (fixed) discount mass is 0.5. The backoffs are computed using the ratio method.
This model based on a corpus of 30 sentences and 54 words

\data\
ngram 1=54
ngram 2=93
ngram 3=82

\1-grams:
-1.0544 </s> -0.3010
-1.0544 <s> -0.2524
-1.7533 A -0.2907
-2.2304 ALARM -0.2920
-2.0544 AN -0.2972
-2.5315 ANAZAR -0.2609
-1.8325 BOY -0.2609
-2.5315 BRIGHTER -0.2609
-2.5315 CHECK -0.2881
-2.5315 DARKER -0.2609
-2.2304 DESKTOP -0.2609
-2.5315 DGERARD -0.2609
-2.2304 DID -0.2985
-2.5315 DNELSON -0.2609
-2.5315 DOWN -0.2609
-2.5315 EMAIL -0.2959
-1.6864 FOR -0.2609
-1.8325 GOOD -0.2946
-2.5315 HELLO -0.2946
-2.2304 I'D -0.2985
-2.5315 IN -0.2609
-1.8325 IS -0.2364
-2.5315 JUST -0.2972
-2.2304 LIGHTS -0.2985
-2.2304 LIKE -0.2959
-2.5315 LOGGED -0.2998
-2.2304 MAKE -0.2881
-2.5315 MESSAGE -0.2959
-2.5315 MLU -0.2609
-2.5315 MUSIC -0.2609
-2.2304 ON -0.2881
-2.5315 PEE -0.2609
-2.5315 PISS -0.2609
-2.5315 PLAY -0.2998
-2.0544 POOP -0.2581
-2.2304 SCREEN -0.2985
-2.5315 SEARCH -0.2881
-2.2304 SEND -0.2894
-1.9294 SET -0.2894
-2.5315 TEXT -0.2998
-1.5315 THE -0.2828
-2.5315 THIS -0.2998
-2.2304 TIMER -0.2920
-1.9294 TO -0.2553
-2.2304 TURN -0.2881
-2.5315 UP -0.2609
-2.2304 WEATHER -0.2920
-2.5315 WEB -0.2920
-2.5315 WHAT -0.2946
-2.5315 WHERE -0.2946
-2.2304 WHO -0.2946
-2.2304 WHO'S -0.2801
-2.2304 YOU -0.2959
-2.5315 YOUR -0.2972

\2-grams:
-1.7782 <s> ANAZAR 0.0000
-1.7782 <s> CHECK 0.0000
-1.7782 <s> DGERARD 0.0000
-1.4771 <s> DID 0.0000
-1.7782 <s> DNELSON 0.0000
-1.7782 <s> HELLO 0.0000
-1.4771 <s> I'D 0.0000
-1.7782 <s> IS -0.2553
-1.7782 <s> LOGGED 0.0000
-1.4771 <s> MAKE 0.0000
-1.7782 <s> MLU 0.0000
-1.7782 <s> PEE 0.0000
-1.7782 <s> PISS 0.0000
-1.7782 <s> PLAY 0.0000
-1.7782 <s> SEARCH 0.0000
-1.4771 <s> SEND 0.0000
-1.4771 <s> SET 0.0000
-1.4771 <s> TURN 0.0000
-1.7782 <s> WHAT 0.0000
-1.7782 <s> WHERE 0.0000
-1.4771 <s> WHO 0.0000
-1.4771 <s> WHO'S 0.0000
-0.6021 A GOOD 0.0000
-1.0792 A TEXT 0.0000
-0.7782 A TIMER 0.0000
-0.3010 ALARM FOR 0.0000
-0.4771 AN ALARM 0.0000
-0.7782 AN EMAIL 0.0000
-0.3010 ANAZAR </s> -0.3010
-0.3010 BOY </s> -0.3010
-0.3010 BRIGHTER </s> -0.3010
-0.3010 CHECK THE -0.2553
-0.3010 DARKER </s> -0.3010
-0.3010 DESKTOP </s> -0.3010
-0.3010 DGERARD </s> -0.3010
-0.3010 DID YOU 0.0000
-0.3010 DNELSON </s> -0.3010
-0.3010 DOWN </s> -0.3010
-0.3010 EMAIL TO -0.1761
-0.3010 FOR </s> -0.3010
-0.3010 GOOD BOY 0.0000
-0.3010 HELLO GOOD 0.0000
-0.3010 I'D LIKE 0.0000
-0.3010 IN </s> -0.3010
-1.0000 IS </s> -0.3010
-0.6990 IS A -0.1761
-1.0000 IS THE -0.2553
-1.0000 IS THIS 0.0000
-0.3010 JUST POOP -0.1249
-0.6021 LIGHTS DOWN 0.0000
-0.6021 LIGHTS UP 0.0000
-0.3010 LIKE TO -0.1761
-0.3010 LOGGED IN 0.0000
-0.3010 MAKE THE -0.2553
-0.3010 MESSAGE TO -0.1761
-0.3010 MLU </s> -0.3010
-0.3010 MUSIC </s> -0.3010
-0.3010 ON THE -0.2553
-0.3010 PEE </s> -0.3010
-0.3010 PISS </s> -0.3010
-0.3010 PLAY MUSIC 0.0000
-0.7782 POOP </s> -0.3010
-0.4771 POOP ON 0.0000
-0.6021 SCREEN BRIGHTER 0.0000
-0.6021 SCREEN DARKER 0.0000
-0.3010 SEARCH THE -0.2788
-0.6021 SEND A -0.2632
-0.6021 SEND AN -0.2218
-0.6021 SET A -0.2218
-0.6021 SET AN -0.1249
-0.3010 TEXT MESSAGE 0.0000
-1.0000 THE DESKTOP 0.0000
-1.3010 THE GOOD 0.0000
-1.0000 THE LIGHTS 0.0000
-1.0000 THE SCREEN 0.0000
-1.0000 THE WEATHER 0.0000
-1.3010 THE WEB 0.0000
-0.3010 THIS YOUR 0.0000
-0.3010 TIMER FOR 0.0000
-0.6021 TO </s> -0.3010
-0.6021 TO SET 0.0000
-0.3010 TURN THE -0.2553
-0.3010 UP </s> -0.3010
-0.3010 WEATHER FOR 0.0000
-0.3010 WEB FOR 0.0000
-0.3010 WHAT IS -0.2553
-0.3010 WHERE IS -0.2553
-0.3010 WHO IS -0.2041
-0.6021 WHO'S A -0.1761
-0.6021 WHO'S THE -0.2788
-0.6021 YOU JUST 0.0000
-0.6021 YOU POOP -0.1249
-0.3010 YOUR POOP -0.2218

\3-grams:
-0.3010 <s> ANAZAR </s>
-0.3010 <s> CHECK THE
-0.3010 <s> DGERARD </s>
-0.3010 <s> DID YOU
-0.3010 <s> DNELSON </s>
-0.3010 <s> HELLO GOOD
-0.3010 <s> I'D LIKE
-0.3010 <s> IS THIS
-0.3010 <s> LOGGED IN
-0.3010 <s> MAKE THE
-0.3010 <s> MLU </s>
-0.3010 <s> PEE </s>
-0.3010 <s> PISS </s>
-0.3010 <s> PLAY MUSIC
-0.3010 <s> SEARCH THE
-0.6021 <s> SEND A
-0.6021 <s> SEND AN
-0.6021 <s> SET A
-0.6021 <s> SET AN
-0.3010 <s> TURN THE
-0.3010 <s> WHAT IS
-0.3010 <s> WHERE IS
-0.3010 <s> WHO IS
-0.6021 <s> WHO'S A
-0.6021 <s> WHO'S THE
-0.3010 A GOOD BOY
-0.3010 A TEXT MESSAGE
-0.3010 A TIMER FOR
-0.3010 ALARM FOR </s>
-0.3010 AN ALARM FOR
-0.3010 AN EMAIL TO
-0.3010 CHECK THE WEATHER
-0.6021 DID YOU JUST
-0.6021 DID YOU POOP
-0.3010 EMAIL TO </s>
-0.3010 GOOD BOY </s>
-0.3010 HELLO GOOD BOY
-0.3010 I'D LIKE TO
-0.3010 IS A GOOD
-0.3010 IS THE WEATHER
-0.3010 IS THIS YOUR
-0.3010 JUST POOP ON
-0.3010 LIGHTS DOWN </s>
-0.3010 LIGHTS UP </s>
-0.3010 LIKE TO SET
-0.3010 LOGGED IN </s>
-0.3010 MAKE THE SCREEN
-0.3010 MESSAGE TO </s>
-0.3010 ON THE DESKTOP
-0.3010 PLAY MUSIC </s>
-0.3010 POOP ON THE
-0.3010 SCREEN BRIGHTER </s>
-0.3010 SCREEN DARKER </s>
-0.3010 SEARCH THE WEB
-0.3010 SEND A TEXT
-0.3010 SEND AN EMAIL
-0.3010 SET A TIMER
-0.3010 SET AN ALARM
-0.3010 TEXT MESSAGE TO
-0.3010 THE DESKTOP </s>
-0.3010 THE GOOD BOY
-0.6021 THE LIGHTS DOWN
-0.6021 THE LIGHTS UP
-0.6021 THE SCREEN BRIGHTER
-0.6021 THE SCREEN DARKER
-0.3010 THE WEATHER FOR
-0.3010 THE WEB FOR
-0.3010 THIS YOUR POOP
-0.3010 TIMER FOR </s>
-0.6021 TO SET A
-0.6021 TO SET AN
-0.3010 TURN THE LIGHTS
-0.3010 WEATHER FOR </s>
-0.3010 WEB FOR </s>
-0.3010 WHAT IS THE
-0.3010 WHERE IS </s>
-0.3010 WHO IS A
-0.3010 WHO'S A GOOD
-0.3010 WHO'S THE GOOD
-0.3010 YOU JUST POOP
-0.3010 YOU POOP ON
-0.3010 YOUR POOP </s>

\end\
